digraph Tree {
node [shape=box, style="filled, rounded", color="black", fontname=helvetica] ;
edge [fontname=helvetica] ;
0 [label=<freak &le; 0.005<br/>mse = 0.084<br/>samples = 27<br/>value = 7.556>, fillcolor="#e581396a"] ;
1 [label=<marry &le; 0.03<br/>mse = 0.029<br/>samples = 12<br/>value = 7.408>, fillcolor="#e5813947"] ;
0 -> 1 [labeldistance=2.5, labelangle=45, headlabel="True"] ;
2 [label=<paris &le; 0.166<br/>mse = 0.016<br/>samples = 10<br/>value = 7.36>, fillcolor="#e581393c"] ;
1 -> 2 ;
3 [label=<marry &le; 0.018<br/>mse = 0.011<br/>samples = 9<br/>value = 7.333>, fillcolor="#e5813936"] ;
2 -> 3 ;
4 [label=<vogue &le; 0.155<br/>mse = 0.009<br/>samples = 7<br/>value = 7.3>, fillcolor="#e581392e"] ;
3 -> 4 ;
5 [label=<shoe &le; 0.038<br/>mse = 0.008<br/>samples = 6<br/>value = 7.317>, fillcolor="#e5813932"] ;
4 -> 5 ;
6 [label=<money &le; 0.013<br/>mse = 0.002<br/>samples = 5<br/>value = 7.28>, fillcolor="#e581392a"] ;
5 -> 6 ;
7 [label=<mse = 0.0<br/>samples = 4<br/>value = 7.3>, fillcolor="#e581392e"] ;
6 -> 7 ;
8 [label=<mse = 0.0<br/>samples = 1<br/>value = 7.2>, fillcolor="#e5813917"] ;
6 -> 8 ;
9 [label=<mse = 0.0<br/>samples = 1<br/>value = 7.5>, fillcolor="#e581395d"] ;
5 -> 9 ;
10 [label=<mse = -0.0<br/>samples = 1<br/>value = 7.2>, fillcolor="#e5813917"] ;
4 -> 10 ;
11 [label=<ghost &le; 0.029<br/>mse = 0.003<br/>samples = 2<br/>value = 7.45>, fillcolor="#e5813951"] ;
3 -> 11 ;
12 [label=<mse = 0.0<br/>samples = 1<br/>value = 7.5>, fillcolor="#e581395d"] ;
11 -> 12 ;
13 [label=<mse = 0.0<br/>samples = 1<br/>value = 7.4>, fillcolor="#e5813946"] ;
11 -> 13 ;
14 [label=<mse = 0.0<br/>samples = 1<br/>value = 7.6>, fillcolor="#e5813974"] ;
2 -> 14 ;
15 [label=<cheat &le; 0.01<br/>mse = 0.022<br/>samples = 2<br/>value = 7.65>, fillcolor="#e5813980"] ;
1 -> 15 ;
16 [label=<mse = 0.0<br/>samples = 1<br/>value = 7.8>, fillcolor="#e58139a2"] ;
15 -> 16 ;
17 [label=<mse = -0.0<br/>samples = 1<br/>value = 7.5>, fillcolor="#e581395d"] ;
15 -> 17 ;
18 [label=<gay &le; 0.108<br/>mse = 0.097<br/>samples = 15<br/>value = 7.673>, fillcolor="#e5813985"] ;
0 -> 18 [labeldistance=2.5, labelangle=-45, headlabel="False"] ;
19 [label=<shoe &le; 0.018<br/>mse = 0.078<br/>samples = 14<br/>value = 7.714>, fillcolor="#e581398e"] ;
18 -> 19 ;
20 [label=<marry &le; 0.064<br/>mse = 0.025<br/>samples = 8<br/>value = 7.562>, fillcolor="#e581396b"] ;
19 -> 20 ;
21 [label=<cheat &le; 0.009<br/>mse = 0.017<br/>samples = 7<br/>value = 7.6>, fillcolor="#e5813974"] ;
20 -> 21 ;
22 [label=<ball &le; 0.014<br/>mse = 0.012<br/>samples = 6<br/>value = 7.633>, fillcolor="#e581397c"] ;
21 -> 22 ;
23 [label=<marry &le; 0.043<br/>mse = 0.002<br/>samples = 3<br/>value = 7.533>, fillcolor="#e5813964"] ;
22 -> 23 ;
24 [label=<mse = -0.0<br/>samples = 2<br/>value = 7.5>, fillcolor="#e581395d"] ;
23 -> 24 ;
25 [label=<mse = -0.0<br/>samples = 1<br/>value = 7.6>, fillcolor="#e5813974"] ;
23 -> 25 ;
26 [label=<freak &le; 0.02<br/>mse = 0.002<br/>samples = 3<br/>value = 7.733>, fillcolor="#e5813993"] ;
22 -> 26 ;
27 [label=<mse = 0.0<br/>samples = 2<br/>value = 7.7>, fillcolor="#e581398b"] ;
26 -> 27 ;
28 [label=<mse = -0.0<br/>samples = 1<br/>value = 7.8>, fillcolor="#e58139a2"] ;
26 -> 28 ;
29 [label=<mse = 0.0<br/>samples = 1<br/>value = 7.4>, fillcolor="#e5813946"] ;
21 -> 29 ;
30 [label=<mse = 0.0<br/>samples = 1<br/>value = 7.3>, fillcolor="#e581392e"] ;
20 -> 30 ;
31 [label=<soul &le; 0.009<br/>mse = 0.078<br/>samples = 6<br/>value = 7.917>, fillcolor="#e58139bd"] ;
19 -> 31 ;
32 [label=<vogue &le; 0.018<br/>mse = 0.087<br/>samples = 4<br/>value = 7.825>, fillcolor="#e58139a8"] ;
31 -> 32 ;
33 [label=<sandwich &le; 0.011<br/>mse = 0.036<br/>samples = 3<br/>value = 7.967>, fillcolor="#e58139c9"] ;
32 -> 33 ;
34 [label=<mse = 0.0<br/>samples = 2<br/>value = 8.1>, fillcolor="#e58139e8"] ;
33 -> 34 ;
35 [label=<mse = 0.0<br/>samples = 1<br/>value = 7.7>, fillcolor="#e581398b"] ;
33 -> 35 ;
36 [label=<mse = 0.0<br/>samples = 1<br/>value = 7.4>, fillcolor="#e5813946"] ;
32 -> 36 ;
37 [label=<game &le; 0.019<br/>mse = 0.01<br/>samples = 2<br/>value = 8.1>, fillcolor="#e58139e8"] ;
31 -> 37 ;
38 [label=<mse = 0.0<br/>samples = 1<br/>value = 8.2>, fillcolor="#e58139ff"] ;
37 -> 38 ;
39 [label=<mse = 0.0<br/>samples = 1<br/>value = 8.0>, fillcolor="#e58139d1"] ;
37 -> 39 ;
40 [label=<mse = 0.0<br/>samples = 1<br/>value = 7.1>, fillcolor="#e5813900"] ;
18 -> 40 ;
}