digraph Tree {
node [shape=box, style="filled, rounded", color="black", fontname=helvetica] ;
edge [fontname=helvetica] ;
0 [label=<soul &le; 0.017<br/>mse = 0.084<br/>samples = 27<br/>value = 7.556>, fillcolor="#e581396a"] ;
1 [label=<model &le; 0.235<br/>mse = 0.064<br/>samples = 25<br/>value = 7.512>, fillcolor="#e5813960"] ;
0 -> 1 [labeldistance=2.5, labelangle=45, headlabel="True"] ;
2 [label=<cheat &le; 0.03<br/>mse = 0.052<br/>samples = 24<br/>value = 7.488>, fillcolor="#e581395a"] ;
1 -> 2 ;
3 [label=<change &le; 0.009<br/>mse = 0.037<br/>samples = 23<br/>value = 7.461>, fillcolor="#e5813954"] ;
2 -> 3 ;
4 [label=<cheat &le; 0.018<br/>mse = 0.022<br/>samples = 4<br/>value = 7.275>, fillcolor="#e5813929"] ;
3 -> 4 ;
5 [label=<paris &le; 0.039<br/>mse = 0.007<br/>samples = 3<br/>value = 7.2>, fillcolor="#e5813917"] ;
4 -> 5 ;
6 [label=<change &le; 0.004<br/>mse = 0.002<br/>samples = 2<br/>value = 7.25>, fillcolor="#e5813923"] ;
5 -> 6 ;
7 [label=<mse = 0.0<br/>samples = 1<br/>value = 7.3>, fillcolor="#e581392e"] ;
6 -> 7 ;
8 [label=<mse = -0.0<br/>samples = 1<br/>value = 7.2>, fillcolor="#e5813917"] ;
6 -> 8 ;
9 [label=<mse = 0.0<br/>samples = 1<br/>value = 7.1>, fillcolor="#e5813900"] ;
5 -> 9 ;
10 [label=<mse = 0.0<br/>samples = 1<br/>value = 7.5>, fillcolor="#e581395d"] ;
4 -> 10 ;
11 [label=<myth &le; 0.159<br/>mse = 0.032<br/>samples = 19<br/>value = 7.5>, fillcolor="#e581395d"] ;
3 -> 11 ;
12 [label=<ray &le; 0.015<br/>mse = 0.028<br/>samples = 18<br/>value = 7.483>, fillcolor="#e5813959"] ;
11 -> 12 ;
13 [label=<ball &le; 0.026<br/>mse = 0.025<br/>samples = 17<br/>value = 7.5>, fillcolor="#e581395d"] ;
12 -> 13 ;
14 [label=<marry &le; 0.021<br/>mse = 0.022<br/>samples = 15<br/>value = 7.473>, fillcolor="#e5813957"] ;
13 -> 14 ;
15 [label=<paris &le; 0.159<br/>mse = 0.011<br/>samples = 9<br/>value = 7.4>, fillcolor="#e5813946"] ;
14 -> 15 ;
16 [label=<change &le; 0.009<br/>mse = 0.007<br/>samples = 8<br/>value = 7.375>, fillcolor="#e5813940"] ;
15 -> 16 ;
17 [label=<mse = 0.0<br/>samples = 3<br/>value = 7.3>, fillcolor="#e581392e"] ;
16 -> 17 ;
18 [label=<whore &le; 0.011<br/>mse = 0.006<br/>samples = 5<br/>value = 7.42>, fillcolor="#e581394a"] ;
16 -> 18 ;
19 [label=<mao &le; 0.149<br/>mse = 0.005<br/>samples = 4<br/>value = 7.4>, fillcolor="#e5813946"] ;
18 -> 19 ;
20 [label=<ball &le; 0.007<br/>mse = 0.002<br/>samples = 3<br/>value = 7.367>, fillcolor="#e581393e"] ;
19 -> 20 ;
21 [label=<mse = 0.0<br/>samples = 1<br/>value = 7.3>, fillcolor="#e581392e"] ;
20 -> 21 ;
22 [label=<mse = 0.0<br/>samples = 2<br/>value = 7.4>, fillcolor="#e5813946"] ;
20 -> 22 ;
23 [label=<mse = 0.0<br/>samples = 1<br/>value = 7.5>, fillcolor="#e581395d"] ;
19 -> 23 ;
24 [label=<mse = 0.0<br/>samples = 1<br/>value = 7.5>, fillcolor="#e581395d"] ;
18 -> 24 ;
25 [label=<mse = 0.0<br/>samples = 1<br/>value = 7.6>, fillcolor="#e5813974"] ;
15 -> 25 ;
26 [label=<freak &le; 0.027<br/>mse = 0.018<br/>samples = 6<br/>value = 7.583>, fillcolor="#e5813970"] ;
14 -> 26 ;
27 [label=<sam &le; 0.219<br/>mse = 0.01<br/>samples = 5<br/>value = 7.54>, fillcolor="#e5813966"] ;
26 -> 27 ;
28 [label=<ball &le; 0.014<br/>mse = 0.005<br/>samples = 4<br/>value = 7.5>, fillcolor="#e581395d"] ;
27 -> 28 ;
29 [label=<freak &le; 0.02<br/>mse = 0.002<br/>samples = 3<br/>value = 7.533>, fillcolor="#e5813964"] ;
28 -> 29 ;
30 [label=<mse = -0.0<br/>samples = 2<br/>value = 7.5>, fillcolor="#e581395d"] ;
29 -> 30 ;
31 [label=<mse = -0.0<br/>samples = 1<br/>value = 7.6>, fillcolor="#e5813974"] ;
29 -> 31 ;
32 [label=<mse = 0.0<br/>samples = 1<br/>value = 7.4>, fillcolor="#e5813946"] ;
28 -> 32 ;
33 [label=<mse = 0.0<br/>samples = 1<br/>value = 7.7>, fillcolor="#e581398b"] ;
27 -> 33 ;
34 [label=<mse = 0.0<br/>samples = 1<br/>value = 7.8>, fillcolor="#e58139a2"] ;
26 -> 34 ;
35 [label=<mse = -0.0<br/>samples = 2<br/>value = 7.7>, fillcolor="#e581398b"] ;
13 -> 35 ;
36 [label=<mse = -0.0<br/>samples = 1<br/>value = 7.2>, fillcolor="#e5813917"] ;
12 -> 36 ;
37 [label=<mse = -0.0<br/>samples = 1<br/>value = 7.8>, fillcolor="#e58139a2"] ;
11 -> 37 ;
38 [label=<mse = -0.0<br/>samples = 1<br/>value = 8.1>, fillcolor="#e58139e8"] ;
2 -> 38 ;
39 [label=<mse = -0.0<br/>samples = 1<br/>value = 8.1>, fillcolor="#e58139e8"] ;
1 -> 39 ;
40 [label=<freak &le; 0.012<br/>mse = 0.01<br/>samples = 2<br/>value = 8.1>, fillcolor="#e58139e8"] ;
0 -> 40 [labeldistance=2.5, labelangle=-45, headlabel="False"] ;
41 [label=<mse = 0.0<br/>samples = 1<br/>value = 8.0>, fillcolor="#e58139d1"] ;
40 -> 41 ;
42 [label=<mse = 0.0<br/>samples = 1<br/>value = 8.2>, fillcolor="#e58139ff"] ;
40 -> 42 ;
}