digraph Tree {
node [shape=box, style="filled, rounded", color="black", fontname=helvetica] ;
edge [fontname=helvetica] ;
0 [label=<soul &le; 0.017<br/>mse = 0.084<br/>samples = 27<br/>value = 7.556>, fillcolor="#e581396a"] ;
1 [label=<cheat &le; 0.03<br/>mse = 0.064<br/>samples = 25<br/>value = 7.512>, fillcolor="#e5813960"] ;
0 -> 1 [labeldistance=2.5, labelangle=45, headlabel="True"] ;
2 [label=<game &le; 0.006<br/>mse = 0.052<br/>samples = 24<br/>value = 7.488>, fillcolor="#e581395a"] ;
1 -> 2 ;
3 [label=<phil &le; 0.283<br/>mse = 0.044<br/>samples = 17<br/>value = 7.553>, fillcolor="#e5813969"] ;
2 -> 3 ;
4 [label=<vogue &le; 0.017<br/>mse = 0.042<br/>samples = 16<br/>value = 7.569>, fillcolor="#e581396d"] ;
3 -> 4 ;
5 [label=<vogue &le; 0.008<br/>mse = 0.046<br/>samples = 12<br/>value = 7.608>, fillcolor="#e5813976"] ;
4 -> 5 ;
6 [label=<gay &le; 0.015<br/>mse = 0.026<br/>samples = 11<br/>value = 7.564>, fillcolor="#e581396b"] ;
5 -> 6 ;
7 [label=<change &le; 0.009<br/>mse = 0.022<br/>samples = 10<br/>value = 7.54>, fillcolor="#e5813966"] ;
6 -> 7 ;
8 [label=<change &le; 0.009<br/>mse = 0.009<br/>samples = 3<br/>value = 7.433>, fillcolor="#e581394d"] ;
7 -> 8 ;
9 [label=<mse = 0.0<br/>samples = 2<br/>value = 7.5>, fillcolor="#e581395d"] ;
8 -> 9 ;
10 [label=<mse = -0.0<br/>samples = 1<br/>value = 7.3>, fillcolor="#e581392e"] ;
8 -> 10 ;
11 [label=<change &le; 0.01<br/>mse = 0.021<br/>samples = 7<br/>value = 7.586>, fillcolor="#e5813971"] ;
7 -> 11 ;
12 [label=<shoe &le; 0.023<br/>mse = 0.002<br/>samples = 2<br/>value = 7.75>, fillcolor="#e5813997"] ;
11 -> 12 ;
13 [label=<mse = 0.0<br/>samples = 1<br/>value = 7.8>, fillcolor="#e58139a2"] ;
12 -> 13 ;
14 [label=<mse = -0.0<br/>samples = 1<br/>value = 7.7>, fillcolor="#e581398b"] ;
12 -> 14 ;
15 [label=<money &le; 0.007<br/>mse = 0.014<br/>samples = 5<br/>value = 7.52>, fillcolor="#e5813961"] ;
11 -> 15 ;
16 [label=<ball &le; 0.026<br/>mse = 0.002<br/>samples = 2<br/>value = 7.65>, fillcolor="#e5813980"] ;
15 -> 16 ;
17 [label=<mse = 0.0<br/>samples = 1<br/>value = 7.6>, fillcolor="#e5813974"] ;
16 -> 17 ;
18 [label=<mse = 0.0<br/>samples = 1<br/>value = 7.7>, fillcolor="#e581398b"] ;
16 -> 18 ;
19 [label=<whore &le; 0.011<br/>mse = 0.002<br/>samples = 3<br/>value = 7.433>, fillcolor="#e581394d"] ;
15 -> 19 ;
20 [label=<mse = 0.0<br/>samples = 2<br/>value = 7.4>, fillcolor="#e5813946"] ;
19 -> 20 ;
21 [label=<mse = 0.0<br/>samples = 1<br/>value = 7.5>, fillcolor="#e581395d"] ;
19 -> 21 ;
22 [label=<mse = -0.0<br/>samples = 1<br/>value = 7.8>, fillcolor="#e58139a2"] ;
6 -> 22 ;
23 [label=<mse = 0.0<br/>samples = 1<br/>value = 8.1>, fillcolor="#e58139e8"] ;
5 -> 23 ;
24 [label=<raw &le; 0.012<br/>mse = 0.013<br/>samples = 4<br/>value = 7.45>, fillcolor="#e5813951"] ;
4 -> 24 ;
25 [label=<gay &le; 0.013<br/>mse = 0.003<br/>samples = 2<br/>value = 7.35>, fillcolor="#e581393a"] ;
24 -> 25 ;
26 [label=<mse = 0.0<br/>samples = 1<br/>value = 7.4>, fillcolor="#e5813946"] ;
25 -> 26 ;
27 [label=<mse = 0.0<br/>samples = 1<br/>value = 7.3>, fillcolor="#e581392e"] ;
25 -> 27 ;
28 [label=<vogue &le; 0.038<br/>mse = 0.003<br/>samples = 2<br/>value = 7.55>, fillcolor="#e5813968"] ;
24 -> 28 ;
29 [label=<mse = 0.0<br/>samples = 1<br/>value = 7.6>, fillcolor="#e5813974"] ;
28 -> 29 ;
30 [label=<mse = -0.0<br/>samples = 1<br/>value = 7.5>, fillcolor="#e581395d"] ;
28 -> 30 ;
31 [label=<mse = 0.0<br/>samples = 1<br/>value = 7.3>, fillcolor="#e581392e"] ;
3 -> 31 ;
32 [label=<weight &le; 0.02<br/>mse = 0.036<br/>samples = 7<br/>value = 7.329>, fillcolor="#e5813935"] ;
2 -> 32 ;
33 [label=<bitsy &le; 0.03<br/>mse = 0.016<br/>samples = 6<br/>value = 7.267>, fillcolor="#e5813927"] ;
32 -> 33 ;
34 [label=<gay &le; 0.097<br/>mse = 0.006<br/>samples = 5<br/>value = 7.22>, fillcolor="#e581391c"] ;
33 -> 34 ;
35 [label=<cheat &le; 0.016<br/>mse = 0.003<br/>samples = 4<br/>value = 7.25>, fillcolor="#e5813923"] ;
34 -> 35 ;
36 [label=<game &le; 0.014<br/>mse = 0.002<br/>samples = 3<br/>value = 7.233>, fillcolor="#e581391f"] ;
35 -> 36 ;
37 [label=<mse = 0.0<br/>samples = 1<br/>value = 7.3>, fillcolor="#e581392e"] ;
36 -> 37 ;
38 [label=<mse = 0.0<br/>samples = 2<br/>value = 7.2>, fillcolor="#e5813917"] ;
36 -> 38 ;
39 [label=<mse = 0.0<br/>samples = 1<br/>value = 7.3>, fillcolor="#e581392e"] ;
35 -> 39 ;
40 [label=<mse = -0.0<br/>samples = 1<br/>value = 7.1>, fillcolor="#e5813900"] ;
34 -> 40 ;
41 [label=<mse = 0.0<br/>samples = 1<br/>value = 7.5>, fillcolor="#e581395d"] ;
33 -> 41 ;
42 [label=<mse = 0.0<br/>samples = 1<br/>value = 7.7>, fillcolor="#e581398b"] ;
32 -> 42 ;
43 [label=<mse = -0.0<br/>samples = 1<br/>value = 8.1>, fillcolor="#e58139e8"] ;
1 -> 43 ;
44 [label=<marry &le; 0.037<br/>mse = 0.01<br/>samples = 2<br/>value = 8.1>, fillcolor="#e58139e8"] ;
0 -> 44 [labeldistance=2.5, labelangle=-45, headlabel="False"] ;
45 [label=<mse = 0.0<br/>samples = 1<br/>value = 8.0>, fillcolor="#e58139d1"] ;
44 -> 45 ;
46 [label=<mse = 0.0<br/>samples = 1<br/>value = 8.2>, fillcolor="#e58139ff"] ;
44 -> 46 ;
}