digraph Tree {
node [shape=box, style="filled, rounded", color="black", fontname=helvetica] ;
edge [fontname=helvetica] ;
0 [label=<freak &le; 0.006<br/>mse = 0.066<br/>samples = 46<br/>value = 7.52>, fillcolor="#e5813978"] ;
1 [label=<paris &le; 0.063<br/>mse = 0.034<br/>samples = 28<br/>value = 7.418>, fillcolor="#e5813961"] ;
0 -> 1 [labeldistance=2.5, labelangle=45, headlabel="True"] ;
2 [label=<gay &le; 0.014<br/>mse = 0.026<br/>samples = 26<br/>value = 7.392>, fillcolor="#e581395b"] ;
1 -> 2 ;
3 [label=<model &le; 0.037<br/>mse = 0.017<br/>samples = 15<br/>value = 7.313>, fillcolor="#e5813949"] ;
2 -> 3 ;
4 [label=<marry &le; 0.026<br/>mse = 0.011<br/>samples = 14<br/>value = 7.336>, fillcolor="#e581394e"] ;
3 -> 4 ;
5 [label=<money &le; 0.081<br/>mse = 0.007<br/>samples = 12<br/>value = 7.308>, fillcolor="#e5813947"] ;
4 -> 5 ;
6 [label=<pregnant &le; 0.016<br/>mse = 0.004<br/>samples = 11<br/>value = 7.291>, fillcolor="#e5813943"] ;
5 -> 6 ;
7 [label=<mse = 0.002<br/>samples = 9<br/>value = 7.267>, fillcolor="#e581393e"] ;
6 -> 7 ;
8 [label=<mse = -0.0<br/>samples = 2<br/>value = 7.4>, fillcolor="#e581395d"] ;
6 -> 8 ;
9 [label=<mse = 0.0<br/>samples = 1<br/>value = 7.5>, fillcolor="#e5813974"] ;
5 -> 9 ;
10 [label=<mse = 0.0<br/>samples = 2<br/>value = 7.5>, fillcolor="#e5813974"] ;
4 -> 10 ;
11 [label=<mse = -0.0<br/>samples = 1<br/>value = 7.0>, fillcolor="#e5813900"] ;
3 -> 11 ;
12 [label=<myth &le; 0.162<br/>mse = 0.018<br/>samples = 11<br/>value = 7.5>, fillcolor="#e5813974"] ;
2 -> 12 ;
13 [label=<vogue &le; 0.009<br/>mse = 0.01<br/>samples = 10<br/>value = 7.47>, fillcolor="#e581396d"] ;
12 -> 13 ;
14 [label=<mse = 0.007<br/>samples = 7<br/>value = 7.514>, fillcolor="#e5813977"] ;
13 -> 14 ;
15 [label=<mse = 0.002<br/>samples = 3<br/>value = 7.367>, fillcolor="#e5813955"] ;
13 -> 15 ;
16 [label=<mse = 0.0<br/>samples = 1<br/>value = 7.8>, fillcolor="#e58139b9"] ;
12 -> 16 ;
17 [label=<mse = 0.023<br/>samples = 2<br/>value = 7.75>, fillcolor="#e58139ae"] ;
1 -> 17 ;
18 [label=<shoe &le; 0.012<br/>mse = 0.075<br/>samples = 18<br/>value = 7.678>, fillcolor="#e581399d"] ;
0 -> 18 [labeldistance=2.5, labelangle=-45, headlabel="False"] ;
19 [label=<mse = 0.036<br/>samples = 8<br/>value = 7.488>, fillcolor="#e5813971"] ;
18 -> 19 ;
20 [label=<freak &le; 0.014<br/>mse = 0.054<br/>samples = 10<br/>value = 7.83>, fillcolor="#e58139c0"] ;
18 -> 20 ;
21 [label=<mse = 0.007<br/>samples = 3<br/>value = 8.1>, fillcolor="#e58139ff"] ;
20 -> 21 ;
22 [label=<mse = 0.03<br/>samples = 7<br/>value = 7.714>, fillcolor="#e58139a6"] ;
20 -> 22 ;
}